digraph Tree {
node [shape=box, style="rounded", color="black", fontname="helvetica"] ;
edge [fontname="helvetica"] ;
0 [label="ELONGATEDNESS <= 41.5\ngini = 0.75\nsamples = 846\nvalue = [218, 212, 217, 199]"] ;
1 [label="MAX.LENGTH_ASPECT_RATIO <= 7.5\ngini = 0.65\nsamples = 382\nvalue = [87, 147, 148, 0]"] ;
0 -> 1 [labeldistance=2.5, labelangle=45, headlabel="True"] ;
2 [label="COMPACTNESS <= 95.5\ngini = 0.334\nsamples = 107\nvalue = [86, 9, 12, 0]"] ;
1 -> 2 ;
3 [label="PR.AXIS_ASPECT_RATIO <= 67.5\ngini = 0.641\nsamples = 37\nvalue = [17, 9, 11, 0]"] ;
2 -> 3 ;
4 [label="SCATTER_RATIO <= 161.5\ngini = 0.54\nsamples = 21\nvalue = [1, 9, 11, 0]"] ;
3 -> 4 ;
5 [label="gini = 0.0\nsamples = 5\nvalue = [0, 0, 5, 0]"] ;
4 -> 5 ;
6 [label="COMPACTNESS <= 89.5\ngini = 0.539\nsamples = 16\nvalue = [1, 9, 6, 0]"] ;
4 -> 6 ;
7 [label="gini = 0.0\nsamples = 5\nvalue = [0, 5, 0, 0]"] ;
6 -> 7 ;
8 [label="ELONGATEDNESS <= 39.5\ngini = 0.562\nsamples = 11\nvalue = [1, 4, 6, 0]"] ;
6 -> 8 ;
9 [label="KURTOSIS_ABOUT_MINOR <= 196.0\ngini = 0.278\nsamples = 6\nvalue = [1, 0, 5, 0]"] ;
8 -> 9 ;
10 [label="gini = 0.0\nsamples = 5\nvalue = [0, 0, 5, 0]"] ;
9 -> 10 ;
11 [label="gini = 0.0\nsamples = 1\nvalue = [1, 0, 0, 0]"] ;
9 -> 11 ;
12 [label="RADIUS_RATIO <= 162.5\ngini = 0.32\nsamples = 5\nvalue = [0, 4, 1, 0]"] ;
8 -> 12 ;
13 [label="gini = 0.0\nsamples = 1\nvalue = [0, 0, 1, 0]"] ;
12 -> 13 ;
14 [label="gini = 0.0\nsamples = 4\nvalue = [0, 4, 0, 0]"] ;
12 -> 14 ;
15 [label="gini = 0.0\nsamples = 16\nvalue = [16, 0, 0, 0]"] ;
3 -> 15 ;
16 [label="KURTOSIS_ABOUT_MAJOR <= 28.5\ngini = 0.028\nsamples = 70\nvalue = [69, 0, 1, 0]"] ;
2 -> 16 ;
17 [label="gini = 0.0\nsamples = 67\nvalue = [67, 0, 0, 0]"] ;
16 -> 17 ;
18 [label="KURTOSIS_ABOUT_MAJOR <= 29.5\ngini = 0.444\nsamples = 3\nvalue = [2, 0, 1, 0]"] ;
16 -> 18 ;
19 [label="gini = 0.0\nsamples = 1\nvalue = [0, 0, 1, 0]"] ;
18 -> 19 ;
20 [label="gini = 0.0\nsamples = 2\nvalue = [2, 0, 0, 0]"] ;
18 -> 20 ;
21 [label="COMPACTNESS <= 106.5\ngini = 0.504\nsamples = 275\nvalue = [1, 138, 136, 0]"] ;
1 -> 21 ;
22 [label="MAX.LENGTH_RECTANGULARITY <= 173.5\ngini = 0.488\nsamples = 220\nvalue = [0, 127, 93, 0]"] ;
21 -> 22 ;
23 [label="HOLLOWS_RATIO <= 195.5\ngini = 0.5\nsamples = 190\nvalue = [0, 98, 92, 0]"] ;
22 -> 23 ;
24 [label="ELONGATEDNESS <= 37.5\ngini = 0.35\nsamples = 31\nvalue = [0, 24, 7, 0]"] ;
23 -> 24 ;
25 [label="KURTOSIS_ABOUT_MAJOR <= 1.5\ngini = 0.165\nsamples = 22\nvalue = [0, 20, 2, 0]"] ;
24 -> 25 ;
26 [label="gini = 0.0\nsamples = 1\nvalue = [0, 0, 1, 0]"] ;
25 -> 26 ;
27 [label="KURTOSIS_ABOUT_MINOR <= 185.5\ngini = 0.091\nsamples = 21\nvalue = [0, 20, 1, 0]"] ;
25 -> 27 ;
28 [label="HOLLOWS_RATIO <= 194.5\ngini = 0.444\nsamples = 3\nvalue = [0, 2, 1, 0]"] ;
27 -> 28 ;
29 [label="gini = 0.0\nsamples = 2\nvalue = [0, 2, 0, 0]"] ;
28 -> 29 ;
30 [label="gini = 0.0\nsamples = 1\nvalue = [0, 0, 1, 0]"] ;
28 -> 30 ;
31 [label="gini = 0.0\nsamples = 18\nvalue = [0, 18, 0, 0]"] ;
27 -> 31 ;
32 [label="CIRCULARITY <= 38.5\ngini = 0.494\nsamples = 9\nvalue = [0, 4, 5, 0]"] ;
24 -> 32 ;
33 [label="gini = 0.0\nsamples = 2\nvalue = [0, 2, 0, 0]"] ;
32 -> 33 ;
34 [label="COMPACTNESS <= 89.5\ngini = 0.408\nsamples = 7\nvalue = [0, 2, 5, 0]"] ;
32 -> 34 ;
35 [label="KURTOSIS_ABOUT_MAJOR <= 12.5\ngini = 0.444\nsamples = 3\nvalue = [0, 2, 1, 0]"] ;
34 -> 35 ;
36 [label="gini = 0.0\nsamples = 1\nvalue = [0, 0, 1, 0]"] ;
35 -> 36 ;
37 [label="gini = 0.0\nsamples = 2\nvalue = [0, 2, 0, 0]"] ;
35 -> 37 ;
38 [label="gini = 0.0\nsamples = 4\nvalue = [0, 0, 4, 0]"] ;
34 -> 38 ;
39 [label="SKEWNESS_ABOUT_MINOR <= 13.5\ngini = 0.498\nsamples = 159\nvalue = [0, 74, 85, 0]"] ;
23 -> 39 ;
40 [label="SCALED_VARIANCE_MAJOR <= 183.5\ngini = 0.5\nsamples = 143\nvalue = [0, 71, 72, 0]"] ;
39 -> 40 ;
41 [label="gini = 0.0\nsamples = 4\nvalue = [0, 4, 0, 0]"] ;
40 -> 41 ;
42 [label="HOLLOWS_RATIO <= 206.5\ngini = 0.499\nsamples = 139\nvalue = [0, 67, 72, 0]"] ;
40 -> 42 ;
43 [label="SCALED_RADIUS_OF_GYRATION <= 218.5\ngini = 0.5\nsamples = 129\nvalue = [0, 66, 63, 0]"] ;
42 -> 43 ;
44 [label="MAX.LENGTH_RECTANGULARITY <= 152.5\ngini = 0.494\nsamples = 106\nvalue = [0, 59, 47, 0]"] ;
43 -> 44 ;
45 [label="PR.AXIS_ASPECT_RATIO <= 60.5\ngini = 0.489\nsamples = 47\nvalue = [0, 20, 27, 0]"] ;
44 -> 45 ;
46 [label="MAX.LENGTH_RECTANGULARITY <= 132.5\ngini = 0.198\nsamples = 9\nvalue = [0, 1, 8, 0]"] ;
45 -> 46 ;
47 [label="gini = 0.0\nsamples = 1\nvalue = [0, 1, 0, 0]"] ;
46 -> 47 ;
48 [label="gini = 0.0\nsamples = 8\nvalue = [0, 0, 8, 0]"] ;
46 -> 48 ;
49 [label="DISTANCE_CIRCULARITY <= 97.0\ngini = 0.5\nsamples = 38\nvalue = [0, 19, 19, 0]"] ;
45 -> 49 ;
50 [label="KURTOSIS_ABOUT_MAJOR <= 23.5\ngini = 0.463\nsamples = 22\nvalue = [0, 14, 8, 0]"] ;
49 -> 50 ;
51 [label="MAX.LENGTH_RECTANGULARITY <= 136.5\ngini = 0.5\nsamples = 16\nvalue = [0, 8, 8, 0]"] ;
50 -> 51 ;
52 [label="gini = 0.0\nsamples = 3\nvalue = [0, 0, 3, 0]"] ;
51 -> 52 ;
53 [label="HOLLOWS_RATIO <= 198.5\ngini = 0.473\nsamples = 13\nvalue = [0, 8, 5, 0]"] ;
51 -> 53 ;
54 [label="gini = 0.0\nsamples = 5\nvalue = [0, 5, 0, 0]"] ;
53 -> 54 ;
55 [label="SCALED_RADIUS_OF_GYRATION <= 152.0\ngini = 0.469\nsamples = 8\nvalue = [0, 3, 5, 0]"] ;
53 -> 55 ;
56 [label="PR.AXIS_RECTANGULARITY <= 20.5\ngini = 0.375\nsamples = 4\nvalue = [0, 3, 1, 0]"] ;
55 -> 56 ;
57 [label="gini = 0.0\nsamples = 1\nvalue = [0, 0, 1, 0]"] ;
56 -> 57 ;
58 [label="gini = 0.0\nsamples = 3\nvalue = [0, 3, 0, 0]"] ;
56 -> 58 ;
59 [label="gini = 0.0\nsamples = 4\nvalue = [0, 0, 4, 0]"] ;
55 -> 59 ;
60 [label="gini = 0.0\nsamples = 6\nvalue = [0, 6, 0, 0]"] ;
50 -> 60 ;
61 [label="SCALED_VARIANCE_MAJOR <= 222.0\ngini = 0.43\nsamples = 16\nvalue = [0, 5, 11, 0]"] ;
49 -> 61 ;
62 [label="SCALED_RADIUS_OF_GYRATION <= 171.0\ngini = 0.337\nsamples = 14\nvalue = [0, 3, 11, 0]"] ;
61 -> 62 ;
63 [label="MAX.LENGTH_RECTANGULARITY <= 149.0\ngini = 0.5\nsamples = 6\nvalue = [0, 3, 3, 0]"] ;
62 -> 63 ;
64 [label="gini = 0.0\nsamples = 3\nvalue = [0, 0, 3, 0]"] ;
63 -> 64 ;
65 [label="gini = 0.0\nsamples = 3\nvalue = [0, 3, 0, 0]"] ;
63 -> 65 ;
66 [label="gini = 0.0\nsamples = 8\nvalue = [0, 0, 8, 0]"] ;
62 -> 66 ;
67 [label="gini = 0.0\nsamples = 2\nvalue = [0, 2, 0, 0]"] ;
61 -> 67 ;
68 [label="SKEWNESS_ABOUT_MINOR <= 3.5\ngini = 0.448\nsamples = 59\nvalue = [0, 39, 20, 0]"] ;
44 -> 68 ;
69 [label="SCALED_RADIUS_OF_GYRATION <= 183.5\ngini = 0.499\nsamples = 27\nvalue = [0, 13, 14, 0]"] ;
68 -> 69 ;
70 [label="gini = 0.0\nsamples = 5\nvalue = [0, 5, 0, 0]"] ;
69 -> 70 ;
71 [label="DISTANCE_CIRCULARITY <= 99.0\ngini = 0.463\nsamples = 22\nvalue = [0, 8, 14, 0]"] ;
69 -> 71 ;
72 [label="KURTOSIS_ABOUT_MAJOR <= 12.0\ngini = 0.408\nsamples = 7\nvalue = [0, 5, 2, 0]"] ;
71 -> 72 ;
73 [label="gini = 0.0\nsamples = 2\nvalue = [0, 0, 2, 0]"] ;
72 -> 73 ;
74 [label="gini = 0.0\nsamples = 5\nvalue = [0, 5, 0, 0]"] ;
72 -> 74 ;
75 [label="KURTOSIS_ABOUT_MINOR <= 190.5\ngini = 0.32\nsamples = 15\nvalue = [0, 3, 12, 0]"] ;
71 -> 75 ;
76 [label="gini = 0.0\nsamples = 11\nvalue = [0, 0, 11, 0]"] ;
75 -> 76 ;
77 [label="COMPACTNESS <= 105.5\ngini = 0.375\nsamples = 4\nvalue = [0, 3, 1, 0]"] ;
75 -> 77 ;
78 [label="gini = 0.0\nsamples = 3\nvalue = [0, 3, 0, 0]"] ;
77 -> 78 ;
79 [label="gini = 0.0\nsamples = 1\nvalue = [0, 0, 1, 0]"] ;
77 -> 79 ;
80 [label="SCALED_VARIANCE_MAJOR <= 196.0\ngini = 0.305\nsamples = 32\nvalue = [0, 26, 6, 0]"] ;
68 -> 80 ;
81 [label="gini = 0.0\nsamples = 1\nvalue = [0, 0, 1, 0]"] ;
80 -> 81 ;
82 [label="COMPACTNESS <= 104.5\ngini = 0.271\nsamples = 31\nvalue = [0, 26, 5, 0]"] ;
80 -> 82 ;
83 [label="DISTANCE_CIRCULARITY <= 102.0\ngini = 0.159\nsamples = 23\nvalue = [0, 21, 2, 0]"] ;
82 -> 83 ;
84 [label="RADIUS_RATIO <= 213.5\ngini = 0.32\nsamples = 10\nvalue = [0, 8, 2, 0]"] ;
83 -> 84 ;
85 [label="SKEWNESS_ABOUT_MAJOR <= 72.5\ngini = 0.198\nsamples = 9\nvalue = [0, 8, 1, 0]"] ;
84 -> 85 ;
86 [label="gini = 0.0\nsamples = 7\nvalue = [0, 7, 0, 0]"] ;
85 -> 86 ;
87 [label="KURTOSIS_ABOUT_MINOR <= 187.5\ngini = 0.5\nsamples = 2\nvalue = [0, 1, 1, 0]"] ;
85 -> 87 ;
88 [label="gini = 0.0\nsamples = 1\nvalue = [0, 1, 0, 0]"] ;
87 -> 88 ;
89 [label="gini = 0.0\nsamples = 1\nvalue = [0, 0, 1, 0]"] ;
87 -> 89 ;
90 [label="gini = 0.0\nsamples = 1\nvalue = [0, 0, 1, 0]"] ;
84 -> 90 ;
91 [label="gini = 0.0\nsamples = 13\nvalue = [0, 13, 0, 0]"] ;
83 -> 91 ;
92 [label="CIRCULARITY <= 51.5\ngini = 0.469\nsamples = 8\nvalue = [0, 5, 3, 0]"] ;
82 -> 92 ;
93 [label="gini = 0.0\nsamples = 2\nvalue = [0, 0, 2, 0]"] ;
92 -> 93 ;
94 [label="SKEWNESS_ABOUT_MAJOR <= 72.5\ngini = 0.278\nsamples = 6\nvalue = [0, 5, 1, 0]"] ;
92 -> 94 ;
95 [label="gini = 0.0\nsamples = 5\nvalue = [0, 5, 0, 0]"] ;
94 -> 95 ;
96 [label="gini = 0.0\nsamples = 1\nvalue = [0, 0, 1, 0]"] ;
94 -> 96 ;
97 [label="SCALED_RADIUS_OF_GYRATION <= 240.5\ngini = 0.423\nsamples = 23\nvalue = [0, 7, 16, 0]"] ;
43 -> 97 ;
98 [label="SKEWNESS_ABOUT_MINOR <= 11.0\ngini = 0.266\nsamples = 19\nvalue = [0, 3, 16, 0]"] ;
97 -> 98 ;
99 [label="PR.AXIS_RECTANGULARITY <= 24.5\ngini = 0.117\nsamples = 16\nvalue = [0, 1, 15, 0]"] ;
98 -> 99 ;
100 [label="gini = 0.0\nsamples = 15\nvalue = [0, 0, 15, 0]"] ;
99 -> 100 ;
101 [label="gini = 0.0\nsamples = 1\nvalue = [0, 1, 0, 0]"] ;
99 -> 101 ;
102 [label="KURTOSIS_ABOUT_MINOR <= 189.0\ngini = 0.444\nsamples = 3\nvalue = [0, 2, 1, 0]"] ;
98 -> 102 ;
103 [label="gini = 0.0\nsamples = 1\nvalue = [0, 0, 1, 0]"] ;
102 -> 103 ;
104 [label="gini = 0.0\nsamples = 2\nvalue = [0, 2, 0, 0]"] ;
102 -> 104 ;
105 [label="gini = 0.0\nsamples = 4\nvalue = [0, 4, 0, 0]"] ;
97 -> 105 ;
106 [label="CIRCULARITY <= 39.5\ngini = 0.18\nsamples = 10\nvalue = [0, 1, 9, 0]"] ;
42 -> 106 ;
107 [label="gini = 0.0\nsamples = 1\nvalue = [0, 1, 0, 0]"] ;
106 -> 107 ;
108 [label="gini = 0.0\nsamples = 9\nvalue = [0, 0, 9, 0]"] ;
106 -> 108 ;
109 [label="ELONGATEDNESS <= 35.5\ngini = 0.305\nsamples = 16\nvalue = [0, 3, 13, 0]"] ;
39 -> 109 ;
110 [label="gini = 0.0\nsamples = 11\nvalue = [0, 0, 11, 0]"] ;
109 -> 110 ;
111 [label="SCALED_VARIANCE_MAJOR <= 191.5\ngini = 0.48\nsamples = 5\nvalue = [0, 3, 2, 0]"] ;
109 -> 111 ;
112 [label="gini = 0.0\nsamples = 2\nvalue = [0, 0, 2, 0]"] ;
111 -> 112 ;
113 [label="gini = 0.0\nsamples = 3\nvalue = [0, 3, 0, 0]"] ;
111 -> 113 ;
114 [label="HOLLOWS_RATIO <= 198.5\ngini = 0.064\nsamples = 30\nvalue = [0, 29, 1, 0]"] ;
22 -> 114 ;
115 [label="gini = 0.0\nsamples = 24\nvalue = [0, 24, 0, 0]"] ;
114 -> 115 ;
116 [label="HOLLOWS_RATIO <= 199.5\ngini = 0.278\nsamples = 6\nvalue = [0, 5, 1, 0]"] ;
114 -> 116 ;
117 [label="gini = 0.0\nsamples = 1\nvalue = [0, 0, 1, 0]"] ;
116 -> 117 ;
118 [label="gini = 0.0\nsamples = 5\nvalue = [0, 5, 0, 0]"] ;
116 -> 118 ;
119 [label="SCALED_RADIUS_OF_GYRATION <= 212.5\ngini = 0.348\nsamples = 55\nvalue = [1, 11, 43, 0]"] ;
21 -> 119 ;
120 [label="KURTOSIS_ABOUT_MAJOR <= 6.5\ngini = 0.471\nsamples = 29\nvalue = [0, 11, 18, 0]"] ;
119 -> 120 ;
121 [label="SKEWNESS_ABOUT_MINOR <= 17.5\ngini = 0.397\nsamples = 11\nvalue = [0, 8, 3, 0]"] ;
120 -> 121 ;
122 [label="KURTOSIS_ABOUT_MINOR <= 188.5\ngini = 0.198\nsamples = 9\nvalue = [0, 8, 1, 0]"] ;
121 -> 122 ;
123 [label="gini = 0.0\nsamples = 1\nvalue = [0, 0, 1, 0]"] ;
122 -> 123 ;
124 [label="gini = 0.0\nsamples = 8\nvalue = [0, 8, 0, 0]"] ;
122 -> 124 ;
125 [label="gini = 0.0\nsamples = 2\nvalue = [0, 0, 2, 0]"] ;
121 -> 125 ;
126 [label="KURTOSIS_ABOUT_MINOR <= 194.5\ngini = 0.278\nsamples = 18\nvalue = [0, 3, 15, 0]"] ;
120 -> 126 ;
127 [label="RADIUS_RATIO <= 191.5\ngini = 0.117\nsamples = 16\nvalue = [0, 1, 15, 0]"] ;
126 -> 127 ;
128 [label="CIRCULARITY <= 49.5\ngini = 0.5\nsamples = 2\nvalue = [0, 1, 1, 0]"] ;
127 -> 128 ;
129 [label="gini = 0.0\nsamples = 1\nvalue = [0, 1, 0, 0]"] ;
128 -> 129 ;
130 [label="gini = 0.0\nsamples = 1\nvalue = [0, 0, 1, 0]"] ;
128 -> 130 ;
131 [label="gini = 0.0\nsamples = 14\nvalue = [0, 0, 14, 0]"] ;
127 -> 131 ;
132 [label="gini = 0.0\nsamples = 2\nvalue = [0, 2, 0, 0]"] ;
126 -> 132 ;
133 [label="SCALED_VARIANCE_MAJOR <= 253.5\ngini = 0.074\nsamples = 26\nvalue = [1, 0, 25, 0]"] ;
119 -> 133 ;
134 [label="gini = 0.0\nsamples = 25\nvalue = [0, 0, 25, 0]"] ;
133 -> 134 ;
135 [label="gini = 0.0\nsamples = 1\nvalue = [1, 0, 0, 0]"] ;
133 -> 135 ;
136 [label="MAX.LENGTH_ASPECT_RATIO <= 8.5\ngini = 0.695\nsamples = 464\nvalue = [131, 65, 69, 199]"] ;
0 -> 136 [labeldistance=2.5, labelangle=-45, headlabel="False"] ;
137 [label="SCALED_VARIANCE_MINOR <= 308.5\ngini = 0.729\nsamples = 348\nvalue = [126, 63, 66, 93]"] ;
136 -> 137 ;
138 [label="MAX.LENGTH_RECTANGULARITY <= 131.5\ngini = 0.604\nsamples = 164\nvalue = [3, 33, 38, 90]"] ;
137 -> 138 ;
139 [label="COMPACTNESS <= 81.5\ngini = 0.665\nsamples = 77\nvalue = [0, 25, 28, 24]"] ;
138 -> 139 ;
140 [label="ELONGATEDNESS <= 48.5\ngini = 0.26\nsamples = 13\nvalue = [0, 11, 2, 0]"] ;
139 -> 140 ;
141 [label="gini = 0.0\nsamples = 2\nvalue = [0, 0, 2, 0]"] ;
140 -> 141 ;
142 [label="gini = 0.0\nsamples = 11\nvalue = [0, 11, 0, 0]"] ;
140 -> 142 ;
143 [label="PR.AXIS_RECTANGULARITY <= 17.5\ngini = 0.646\nsamples = 64\nvalue = [0, 14, 26, 24]"] ;
139 -> 143 ;
144 [label="KURTOSIS_ABOUT_MAJOR <= 19.5\ngini = 0.483\nsamples = 27\nvalue = [0, 2, 7, 18]"] ;
143 -> 144 ;
145 [label="SKEWNESS_ABOUT_MINOR <= 16.5\ngini = 0.277\nsamples = 19\nvalue = [0, 2, 1, 16]"] ;
144 -> 145 ;
146 [label="SCALED_VARIANCE_MINOR <= 219.5\ngini = 0.111\nsamples = 17\nvalue = [0, 0, 1, 16]"] ;
145 -> 146 ;
147 [label="gini = 0.0\nsamples = 13\nvalue = [0, 0, 0, 13]"] ;
146 -> 147 ;
148 [label="SCALED_VARIANCE_MINOR <= 220.5\ngini = 0.375\nsamples = 4\nvalue = [0, 0, 1, 3]"] ;
146 -> 148 ;
149 [label="gini = 0.0\nsamples = 1\nvalue = [0, 0, 1, 0]"] ;
148 -> 149 ;
150 [label="gini = 0.0\nsamples = 3\nvalue = [0, 0, 0, 3]"] ;
148 -> 150 ;
151 [label="gini = 0.0\nsamples = 2\nvalue = [0, 2, 0, 0]"] ;
145 -> 151 ;
152 [label="MAX.LENGTH_RECTANGULARITY <= 124.0\ngini = 0.375\nsamples = 8\nvalue = [0, 0, 6, 2]"] ;
144 -> 152 ;
153 [label="gini = 0.0\nsamples = 5\nvalue = [0, 0, 5, 0]"] ;
152 -> 153 ;
154 [label="MAX.LENGTH_RECTANGULARITY <= 126.5\ngini = 0.444\nsamples = 3\nvalue = [0, 0, 1, 2]"] ;
152 -> 154 ;
155 [label="gini = 0.0\nsamples = 2\nvalue = [0, 0, 0, 2]"] ;
154 -> 155 ;
156 [label="gini = 0.0\nsamples = 1\nvalue = [0, 0, 1, 0]"] ;
154 -> 156 ;
157 [label="SCALED_RADIUS_OF_GYRATION <= 131.0\ngini = 0.605\nsamples = 37\nvalue = [0, 12, 19, 6]"] ;
143 -> 157 ;
158 [label="MAX.LENGTH_RECTANGULARITY <= 128.5\ngini = 0.637\nsamples = 17\nvalue = [0, 8, 4, 5]"] ;
157 -> 158 ;
159 [label="KURTOSIS_ABOUT_MAJOR <= 24.5\ngini = 0.397\nsamples = 11\nvalue = [0, 8, 3, 0]"] ;
158 -> 159 ;
160 [label="SKEWNESS_ABOUT_MAJOR <= 63.5\ngini = 0.5\nsamples = 6\nvalue = [0, 3, 3, 0]"] ;
159 -> 160 ;
161 [label="gini = 0.0\nsamples = 2\nvalue = [0, 0, 2, 0]"] ;
160 -> 161 ;
162 [label="RADIUS_RATIO <= 127.5\ngini = 0.375\nsamples = 4\nvalue = [0, 3, 1, 0]"] ;
160 -> 162 ;
163 [label="gini = 0.0\nsamples = 1\nvalue = [0, 0, 1, 0]"] ;
162 -> 163 ;
164 [label="gini = 0.0\nsamples = 3\nvalue = [0, 3, 0, 0]"] ;
162 -> 164 ;
165 [label="gini = 0.0\nsamples = 5\nvalue = [0, 5, 0, 0]"] ;
159 -> 165 ;
166 [label="DISTANCE_CIRCULARITY <= 68.5\ngini = 0.278\nsamples = 6\nvalue = [0, 0, 1, 5]"] ;
158 -> 166 ;
167 [label="gini = 0.0\nsamples = 5\nvalue = [0, 0, 0, 5]"] ;
166 -> 167 ;
168 [label="gini = 0.0\nsamples = 1\nvalue = [0, 0, 1, 0]"] ;
166 -> 168 ;
169 [label="CIRCULARITY <= 37.5\ngini = 0.395\nsamples = 20\nvalue = [0, 4, 15, 1]"] ;
157 -> 169 ;
170 [label="MAX.LENGTH_ASPECT_RATIO <= 7.5\ngini = 0.133\nsamples = 14\nvalue = [0, 1, 13, 0]"] ;
169 -> 170 ;
171 [label="gini = 0.0\nsamples = 12\nvalue = [0, 0, 12, 0]"] ;
170 -> 171 ;
172 [label="SCALED_RADIUS_OF_GYRATION <= 138.0\ngini = 0.5\nsamples = 2\nvalue = [0, 1, 1, 0]"] ;
170 -> 172 ;
173 [label="gini = 0.0\nsamples = 1\nvalue = [0, 0, 1, 0]"] ;
172 -> 173 ;
174 [label="gini = 0.0\nsamples = 1\nvalue = [0, 1, 0, 0]"] ;
172 -> 174 ;
175 [label="SCALED_VARIANCE_MINOR <= 275.5\ngini = 0.611\nsamples = 6\nvalue = [0, 3, 2, 1]"] ;
169 -> 175 ;
176 [label="gini = 0.0\nsamples = 3\nvalue = [0, 3, 0, 0]"] ;
175 -> 176 ;
177 [label="KURTOSIS_ABOUT_MINOR <= 187.5\ngini = 0.444\nsamples = 3\nvalue = [0, 0, 2, 1]"] ;
175 -> 177 ;
178 [label="gini = 0.0\nsamples = 2\nvalue = [0, 0, 2, 0]"] ;
177 -> 178 ;
179 [label="gini = 0.0\nsamples = 1\nvalue = [0, 0, 0, 1]"] ;
177 -> 179 ;
180 [label="SCALED_VARIANCE_MINOR <= 289.5\ngini = 0.402\nsamples = 87\nvalue = [3, 8, 10, 66]"] ;
138 -> 180 ;
181 [label="MAX.LENGTH_RECTANGULARITY <= 138.5\ngini = 0.258\nsamples = 69\nvalue = [0, 5, 5, 59]"] ;
180 -> 181 ;
182 [label="SCALED_RADIUS_OF_GYRATION <= 149.0\ngini = 0.479\nsamples = 32\nvalue = [0, 5, 5, 22]"] ;
181 -> 182 ;
183 [label="COMPACTNESS <= 84.5\ngini = 0.172\nsamples = 21\nvalue = [0, 2, 0, 19]"] ;
182 -> 183 ;
184 [label="gini = 0.0\nsamples = 1\nvalue = [0, 1, 0, 0]"] ;
183 -> 184 ;
185 [label="CIRCULARITY <= 39.5\ngini = 0.095\nsamples = 20\nvalue = [0, 1, 0, 19]"] ;
183 -> 185 ;
186 [label="gini = 0.0\nsamples = 18\nvalue = [0, 0, 0, 18]"] ;
185 -> 186 ;
187 [label="SKEWNESS_ABOUT_MINOR <= 0.5\ngini = 0.5\nsamples = 2\nvalue = [0, 1, 0, 1]"] ;
185 -> 187 ;
188 [label="gini = 0.0\nsamples = 1\nvalue = [0, 0, 0, 1]"] ;
187 -> 188 ;
189 [label="gini = 0.0\nsamples = 1\nvalue = [0, 1, 0, 0]"] ;
187 -> 189 ;
190 [label="SCALED_VARIANCE_MAJOR <= 148.5\ngini = 0.645\nsamples = 11\nvalue = [0, 3, 5, 3]"] ;
182 -> 190 ;
191 [label="gini = 0.0\nsamples = 3\nvalue = [0, 0, 0, 3]"] ;
190 -> 191 ;
192 [label="MAX.LENGTH_RECTANGULARITY <= 135.5\ngini = 0.469\nsamples = 8\nvalue = [0, 3, 5, 0]"] ;
190 -> 192 ;
193 [label="gini = 0.0\nsamples = 4\nvalue = [0, 0, 4, 0]"] ;
192 -> 193 ;
194 [label="KURTOSIS_ABOUT_MAJOR <= 10.0\ngini = 0.375\nsamples = 4\nvalue = [0, 3, 1, 0]"] ;
192 -> 194 ;
195 [label="gini = 0.0\nsamples = 3\nvalue = [0, 3, 0, 0]"] ;
194 -> 195 ;
196 [label="gini = 0.0\nsamples = 1\nvalue = [0, 0, 1, 0]"] ;
194 -> 196 ;
197 [label="gini = 0.0\nsamples = 37\nvalue = [0, 0, 0, 37]"] ;
181 -> 197 ;
198 [label="MAX.LENGTH_RECTANGULARITY <= 146.5\ngini = 0.716\nsamples = 18\nvalue = [3, 3, 5, 7]"] ;
180 -> 198 ;
199 [label="PR.AXIS_ASPECT_RATIO <= 63.0\ngini = 0.722\nsamples = 13\nvalue = [3, 3, 5, 2]"] ;
198 -> 199 ;
200 [label="ELONGATEDNESS <= 47.5\ngini = 0.568\nsamples = 9\nvalue = [1, 3, 5, 0]"] ;
199 -> 200 ;
201 [label="CIRCULARITY <= 40.0\ngini = 0.32\nsamples = 5\nvalue = [1, 0, 4, 0]"] ;
200 -> 201 ;
202 [label="gini = 0.0\nsamples = 1\nvalue = [1, 0, 0, 0]"] ;
201 -> 202 ;
203 [label="gini = 0.0\nsamples = 4\nvalue = [0, 0, 4, 0]"] ;
201 -> 203 ;
204 [label="KURTOSIS_ABOUT_MINOR <= 182.5\ngini = 0.375\nsamples = 4\nvalue = [0, 3, 1, 0]"] ;
200 -> 204 ;
205 [label="gini = 0.0\nsamples = 1\nvalue = [0, 0, 1, 0]"] ;
204 -> 205 ;
206 [label="gini = 0.0\nsamples = 3\nvalue = [0, 3, 0, 0]"] ;
204 -> 206 ;
207 [label="DISTANCE_CIRCULARITY <= 71.5\ngini = 0.5\nsamples = 4\nvalue = [2, 0, 0, 2]"] ;
199 -> 207 ;
208 [label="gini = 0.0\nsamples = 2\nvalue = [2, 0, 0, 0]"] ;
207 -> 208 ;
209 [label="gini = 0.0\nsamples = 2\nvalue = [0, 0, 0, 2]"] ;
207 -> 209 ;
210 [label="gini = 0.0\nsamples = 5\nvalue = [0, 0, 0, 5]"] ;
198 -> 210 ;
211 [label="DISTANCE_CIRCULARITY <= 76.5\ngini = 0.503\nsamples = 184\nvalue = [123, 30, 28, 3]"] ;
137 -> 211 ;
212 [label="SKEWNESS_ABOUT_MINOR <= 10.5\ngini = 0.334\nsamples = 153\nvalue = [123, 13, 17, 0]"] ;
211 -> 212 ;
213 [label="MAX.LENGTH_RECTANGULARITY <= 134.5\ngini = 0.179\nsamples = 133\nvalue = [120, 2, 11, 0]"] ;
212 -> 213 ;
214 [label="KURTOSIS_ABOUT_MINOR <= 191.0\ngini = 0.58\nsamples = 21\nvalue = [10, 2, 9, 0]"] ;
213 -> 214 ;
215 [label="gini = 0.0\nsamples = 7\nvalue = [0, 0, 7, 0]"] ;
214 -> 215 ;
216 [label="PR.AXIS_ASPECT_RATIO <= 63.0\ngini = 0.449\nsamples = 14\nvalue = [10, 2, 2, 0]"] ;
214 -> 216 ;
217 [label="CIRCULARITY <= 35.5\ngini = 0.5\nsamples = 4\nvalue = [0, 2, 2, 0]"] ;
216 -> 217 ;
218 [label="gini = 0.0\nsamples = 2\nvalue = [0, 2, 0, 0]"] ;
217 -> 218 ;
219 [label="gini = 0.0\nsamples = 2\nvalue = [0, 0, 2, 0]"] ;
217 -> 219 ;
220 [label="gini = 0.0\nsamples = 10\nvalue = [10, 0, 0, 0]"] ;
216 -> 220 ;
221 [label="KURTOSIS_ABOUT_MAJOR <= 26.5\ngini = 0.035\nsamples = 112\nvalue = [110, 0, 2, 0]"] ;
213 -> 221 ;
222 [label="SCALED_VARIANCE_MAJOR <= 165.5\ngini = 0.018\nsamples = 111\nvalue = [110, 0, 1, 0]"] ;
221 -> 222 ;
223 [label="SCATTER_RATIO <= 146.5\ngini = 0.444\nsamples = 3\nvalue = [2, 0, 1, 0]"] ;
222 -> 223 ;
224 [label="gini = 0.0\nsamples = 2\nvalue = [2, 0, 0, 0]"] ;
223 -> 224 ;
225 [label="gini = 0.0\nsamples = 1\nvalue = [0, 0, 1, 0]"] ;
223 -> 225 ;
226 [label="gini = 0.0\nsamples = 108\nvalue = [108, 0, 0, 0]"] ;
222 -> 226 ;
227 [label="gini = 0.0\nsamples = 1\nvalue = [0, 0, 1, 0]"] ;
221 -> 227 ;
228 [label="PR.AXIS_ASPECT_RATIO <= 62.5\ngini = 0.585\nsamples = 20\nvalue = [3, 11, 6, 0]"] ;
212 -> 228 ;
229 [label="DISTANCE_CIRCULARITY <= 72.5\ngini = 0.457\nsamples = 17\nvalue = [0, 11, 6, 0]"] ;
228 -> 229 ;
230 [label="PR.AXIS_ASPECT_RATIO <= 57.0\ngini = 0.469\nsamples = 8\nvalue = [0, 3, 5, 0]"] ;
229 -> 230 ;
231 [label="DISTANCE_CIRCULARITY <= 71.5\ngini = 0.375\nsamples = 4\nvalue = [0, 3, 1, 0]"] ;
230 -> 231 ;
232 [label="gini = 0.0\nsamples = 3\nvalue = [0, 3, 0, 0]"] ;
231 -> 232 ;
233 [label="gini = 0.0\nsamples = 1\nvalue = [0, 0, 1, 0]"] ;
231 -> 233 ;
234 [label="gini = 0.0\nsamples = 4\nvalue = [0, 0, 4, 0]"] ;
230 -> 234 ;
235 [label="KURTOSIS_ABOUT_MAJOR <= 1.0\ngini = 0.198\nsamples = 9\nvalue = [0, 8, 1, 0]"] ;
229 -> 235 ;
236 [label="gini = 0.0\nsamples = 1\nvalue = [0, 0, 1, 0]"] ;
235 -> 236 ;
237 [label="gini = 0.0\nsamples = 8\nvalue = [0, 8, 0, 0]"] ;
235 -> 237 ;
238 [label="gini = 0.0\nsamples = 3\nvalue = [3, 0, 0, 0]"] ;
228 -> 238 ;
239 [label="SCATTER_RATIO <= 148.5\ngini = 0.564\nsamples = 31\nvalue = [0, 17, 11, 3]"] ;
211 -> 239 ;
240 [label="PR.AXIS_ASPECT_RATIO <= 61.5\ngini = 0.5\nsamples = 6\nvalue = [0, 3, 0, 3]"] ;
239 -> 240 ;
241 [label="gini = 0.0\nsamples = 3\nvalue = [0, 3, 0, 0]"] ;
240 -> 241 ;
242 [label="gini = 0.0\nsamples = 3\nvalue = [0, 0, 0, 3]"] ;
240 -> 242 ;
243 [label="CIRCULARITY <= 38.5\ngini = 0.493\nsamples = 25\nvalue = [0, 14, 11, 0]"] ;
239 -> 243 ;
244 [label="MAX.LENGTH_RECTANGULARITY <= 127.5\ngini = 0.473\nsamples = 13\nvalue = [0, 5, 8, 0]"] ;
243 -> 244 ;
245 [label="SCALED_RADIUS_OF_GYRATION <= 124.5\ngini = 0.278\nsamples = 6\nvalue = [0, 5, 1, 0]"] ;
244 -> 245 ;
246 [label="gini = 0.0\nsamples = 1\nvalue = [0, 0, 1, 0]"] ;
245 -> 246 ;
247 [label="gini = 0.0\nsamples = 5\nvalue = [0, 5, 0, 0]"] ;
245 -> 247 ;
248 [label="gini = 0.0\nsamples = 7\nvalue = [0, 0, 7, 0]"] ;
244 -> 248 ;
249 [label="MAX.LENGTH_RECTANGULARITY <= 146.5\ngini = 0.375\nsamples = 12\nvalue = [0, 9, 3, 0]"] ;
243 -> 249 ;
250 [label="HOLLOWS_RATIO <= 188.0\ngini = 0.18\nsamples = 10\nvalue = [0, 9, 1, 0]"] ;
249 -> 250 ;
251 [label="gini = 0.0\nsamples = 1\nvalue = [0, 0, 1, 0]"] ;
250 -> 251 ;
252 [label="gini = 0.0\nsamples = 9\nvalue = [0, 9, 0, 0]"] ;
250 -> 252 ;
253 [label="gini = 0.0\nsamples = 2\nvalue = [0, 0, 2, 0]"] ;
249 -> 253 ;
254 [label="HOLLOWS_RATIO <= 189.5\ngini = 0.162\nsamples = 116\nvalue = [5, 2, 3, 106]"] ;
136 -> 254 ;
255 [label="SCALED_VARIANCE_MINOR <= 310.0\ngini = 0.32\nsamples = 5\nvalue = [4, 1, 0, 0]"] ;
254 -> 255 ;
256 [label="gini = 0.0\nsamples = 1\nvalue = [0, 1, 0, 0]"] ;
255 -> 256 ;
257 [label="gini = 0.0\nsamples = 4\nvalue = [4, 0, 0, 0]"] ;
255 -> 257 ;
258 [label="SKEWNESS_ABOUT_MAJOR <= 63.5\ngini = 0.087\nsamples = 111\nvalue = [1, 1, 3, 106]"] ;
254 -> 258 ;
259 [label="ELONGATEDNESS <= 44.5\ngini = 0.375\nsamples = 4\nvalue = [0, 0, 3, 1]"] ;
258 -> 259 ;
260 [label="gini = 0.0\nsamples = 3\nvalue = [0, 0, 3, 0]"] ;
259 -> 260 ;
261 [label="gini = 0.0\nsamples = 1\nvalue = [0, 0, 0, 1]"] ;
259 -> 261 ;
262 [label="SCALED_VARIANCE_MAJOR <= 149.0\ngini = 0.037\nsamples = 107\nvalue = [1, 1, 0, 105]"] ;
258 -> 262 ;
263 [label="gini = 0.0\nsamples = 1\nvalue = [0, 1, 0, 0]"] ;
262 -> 263 ;
264 [label="COMPACTNESS <= 85.5\ngini = 0.019\nsamples = 106\nvalue = [1, 0, 0, 105]"] ;
262 -> 264 ;
265 [label="DISTANCE_CIRCULARITY <= 68.0\ngini = 0.245\nsamples = 7\nvalue = [1, 0, 0, 6]"] ;
264 -> 265 ;
266 [label="gini = 0.0\nsamples = 1\nvalue = [1, 0, 0, 0]"] ;
265 -> 266 ;
267 [label="gini = 0.0\nsamples = 6\nvalue = [0, 0, 0, 6]"] ;
265 -> 267 ;
268 [label="gini = 0.0\nsamples = 99\nvalue = [0, 0, 0, 99]"] ;
264 -> 268 ;
}